11 15 1
0.130 0.368 -0.269 -0.317 0.271 0.466 0.187 -0.797 -0.066 0.062 -0.597 0.016
0.190 -0.102 -0.209 0.407 -0.129 0.034 0.039 0.110 0.337 -0.599 0.814 -0.062
-0.346 -0.001 -0.137 0.816 0.424 0.719 -0.420 0.074 -0.362 0.521 -0.692 -0.552
-0.265 -0.457 -0.169 -0.180 -0.334 0.643 0.226 -0.054 0.859 0.203 0.253 0.330
0.005 -1.009 -0.544 -0.173 -0.304 0.951 -0.828 -0.819 0.235 0.879 0.314 -0.396
0.645 -0.478 -0.124 -0.309 -0.634 -0.676 -0.793 0.653 -0.196 -0.749 0.525 -0.281
-0.656 -0.220 -0.855 -0.121 0.416 -0.419 0.516 0.324 -0.408 -0.456 0.249 -0.368
-0.211 -0.002 -0.138 -0.637 -0.536 0.312 0.308 -1.633 0.608 -0.130 0.218 0.412
-0.489 0.092 0.153 0.212 -0.105 -0.150 -0.490 0.389 -0.738 -0.935 -0.614 -0.130
-0.422 -0.020 0.002 -0.071 -0.624 -0.132 0.177 -0.760 0.229 -0.184 0.468 -0.319
0.567 -0.444 -0.228 -0.129 -0.133 -0.507 0.438 -0.797 -0.181 -1.232 0.025 0.102
0.210 0.109 0.032 -0.498 -0.384 0.331 0.046 0.147 -0.278 0.345 0.001 0.630
0.323 0.357 -0.688 -0.502 0.810 -0.016 0.146 0.215 1.172 0.016 0.734 -0.143
-0.070 -0.332 -0.285 0.333 -0.494 0.140 0.781 -0.176 0.092 -0.209 -0.187 0.243
0.444 0.078 -1.145 0.939 -0.026 -0.172 0.868 0.288 -0.551 -1.208 -1.109 0.015
0.680 -0.118 -0.452 0.741 -0.060 0.177 -0.698 -0.601 0.337 -0.470 0.005 -0.141 0.662 0.265 -0.460 0.872